function [y1] = annFunctionMatlabCoder(x1)
%MYNEURALNETWORKFUNCTION neural network simulation function.
%
% Auto-generated by MATLAB, 02-Sep-2024 14:46:55.
%
% [y1] = myNeuralNetworkFunction(x1) takes these arguments:
%   x = Qx1 matrix, input #1
% and returns:
%   y = Qx1 matrix, output #1
% where Q is the number of samples.

%#ok<*RPMT0>

% ===== NEURAL NETWORK CONSTANTS =====

% Input 1
x1_step1.xoffset = 1.18736248783051e-05;
x1_step1.gain = 0.00800066344349501;
x1_step1.ymin = -1;

% Layer 1
b1 = [-21.059284099404688817;-22.786163982438917941;2.0823217734255132783;-3.6642793827038775412;3.9515072398395920672;-1.4423598775580690479;-41.682678513472595228;-3.9966378035928600276;99.884035560844907309;-42.679787043919169776];
IW1_1 = [22.886834005221210475;27.944026311085412573;-4.3227148270805191288;-4.2487231608203011035;5.3833849467073271455;-6.8730607061410236014;-92.785556562494221566;-4.2603212310466593848;119.97615604298285064;-39.90686183480401894];

% Layer 2
b2 = -25.315233024435435993;
LW2_1 = [0.0025976032598222765189 0.016305457906216284936 -0.014555712304075584321 5.8423979790305322624 1.5331154964381346062 -0.070516784787468450579 -0.058931912278453971177 -5.7506112632411561236 0.15699187332290065466 -24.52204162482079397];

% Output 1
y1_step1.ymin = -1;
y1_step1.gain = 2.1763338133699;
y1_step1.xoffset = 0;

% ===== SIMULATION ========

% Dimensions
Q = size(x1,1); % samples

% Input 1
x1 = x1';
xp1 = mapminmax_apply(x1,x1_step1);

% Layer 1
a1 = tansig_apply(repmat(b1,1,Q) + IW1_1*xp1);

% Layer 2
a2 = repmat(b2,1,Q) + LW2_1*a1;

% Output 1
y1 = mapminmax_reverse(a2,y1_step1);
y1 = y1';
end

% ===== MODULE FUNCTIONS ========

% Map Minimum and Maximum Input Processing Function
function y = mapminmax_apply(x,settings)
y = bsxfun(@minus,x,settings.xoffset);
y = bsxfun(@times,y,settings.gain);
y = bsxfun(@plus,y,settings.ymin);
end

% Sigmoid Symmetric Transfer Function
function a = tansig_apply(n,~)
a = 2 ./ (1 + exp(-2*n)) - 1;
end

% Map Minimum and Maximum Output Reverse-Processing Function
function x = mapminmax_reverse(y,settings)
x = bsxfun(@minus,y,settings.ymin);
x = bsxfun(@rdivide,x,settings.gain);
x = bsxfun(@plus,x,settings.xoffset);
end
